//Numpy array shape [36]
//Min -0.328125000000
//Max 0.281250000000
//Number of zeros 1

#ifndef B14_H_
#define B14_H_

#ifdef __HLS4ML_LOAD_TXT_WEIGHTS__
bias14_t b14[36];
#else
//bias14_t b14[36] = {0.0546875, 0.0781250, -0.0312500, -0.0781250, 0.0625000, -0.0312500, -0.2265625, 0.2812500, 0.0312500, 0.0000000, -0.0937500, -0.0156250, -0.0156250, 0.0781250, 0.1093750, -0.1406250, -0.0703125, -0.2187500, 0.1328125, -0.1640625, -0.0234375, -0.0468750, -0.1796875, 0.1171875, 0.1171875, 0.1015625, 0.1875000, 0.2578125, -0.0156250, -0.2656250, -0.2812500, -0.3281250, 0.2187500, -0.0078125, -0.0156250, -0.2265625};
bias14_t bb14[36] = {0.0546875, 0.0781250, -0.0312500, -0.0781250, 0.0625000, -0.0312500, -0.2265625, 0.2812500, 0.0312500, 0.0000000, -0.0937500, -0.0156250, -0.0156250, 0.0781250, 0.1093750, -0.1406250, -0.0703125, -0.2187500, 0.1328125, -0.1640625, -0.0234375, -0.0468750, -0.1796875, 0.1171875, 0.1171875, 0.1015625, 0.1875000, 0.2578125, -0.0156250, -0.2656250, -0.2812500, -0.3281250, 0.2187500, -0.0078125, -0.0156250, -0.2265625};

#endif

#endif
