//Numpy array shape [1, 17, 64]
//Min -0.999649822712
//Max 0.989929974079
//Number of zeros 0

#ifndef W18_H_
#define W18_H_

#ifndef __SYNTHESIS__
phi1_weight_t w18[1088];
#else
phi1_weight_t w18[1088] = {-0.0913014, -0.8336686, -0.1459726, -0.9567598, -0.4575121, 0.9865990, -0.9042594, 0.1837460, -0.2431401, 0.7243565, 0.6611436, 0.9733834, -0.7840549, 0.6752589, 0.3050899, 0.2253252, 0.1331267, -0.8078499, -0.2587745, -0.8438746, 0.2786643, -0.4930967, 0.2387627, 0.7665594, -0.7078819, -0.6403673, -0.7536802, -0.5945107, 0.0153035, 0.1921569, 0.6744559, 0.6496928, 0.0456572, 0.1425640, -0.2433798, 0.5483851, -0.3676976, 0.6252147, 0.2495933, 0.6330946, -0.6912239, -0.1299700, -0.2679140, -0.3747642, -0.3853942, 0.0798969, -0.3393307, -0.1471502, 0.2846221, -0.2780048, 0.3989368, 0.8506698, -0.0667026, 0.8166115, -0.4538147, -0.4139565, -0.1547419, 0.3173553, -0.3385944, 0.5035245, -0.1436538, 0.5095586, -0.1119014, -0.3931902, 0.5724757, 0.0045135, -0.6626767, -0.3325330, 0.8645645, 0.1340060, -0.3825751, -0.1270064, -0.3026337, -0.0582897, 0.1103649, -0.1156762, -0.1273033, 0.0289558, 0.0168056, 0.6847975, 0.2868881, -0.2330621, -0.8135016, 0.6710039, -0.1669129, 0.4877492, -0.0286707, 0.3480371, -0.0505886, -0.3128379, -0.1466182, 0.2334991, -0.0780068, -0.2655675, -0.0277924, 0.3516885, -0.0945732, -0.1412135, -0.0445372, 0.3338192, -0.3862164, 0.6579299, -0.0309914, 0.1854873, 0.1481943, -0.4071428, 0.0435561, -0.3974912, 0.6620341, 0.7758197, -0.1164090, 0.0784483, -0.2260277, 0.4127185, 0.0327228, 0.0219636, 0.1151938, 0.1062836, -0.5393934, -0.5282313, 0.3414229, 0.2370997, -0.5549834, -0.1804948, 0.2041365, -0.3665591, 0.3935164, -0.2556199, 0.2409797, 0.7270918, 0.1318007, 0.3395471, 0.4215899, -0.9734700, 0.5107144, -0.5198748, -0.8391441, -0.0828547, -0.2486633, -0.2631422, 0.3385001, 0.0260731, 0.2648917, -0.3349082, -0.3733860, 0.6053247, 0.1159229, 0.6127243, -0.3304197, 0.0340601, -0.0750176, -0.2201801, 0.5667199, 0.4285271, -0.4870674, -0.4640943, -0.3644508, 0.0128424, -0.3073714, -0.0128639, -0.3978820, -0.7810993, 0.5639369, 0.3372044, 0.0532255, 0.3832974, 0.9715317, -0.6380407, -0.7118878, 0.1261362, -0.9996498, 0.2445508, 0.3282523, 0.0061239, -0.1916043, -0.1923080, -0.0445604, 0.3932868, -0.1320515, 0.3377136, 0.6208670, -0.5242558, -0.2062692, -0.9847013, -0.0885313, -0.0295627, -0.4536443, 0.3790345, 0.4927816, -0.0633815, -0.4534423, -0.4535414, 0.2226250, -0.1826931, 0.5422549, 0.1611512, -0.3197382, -0.1833422, -0.3247049, -0.6495792, 0.6310867, 0.8020943, 0.2885762, 0.1151524, -0.3512199, -0.3364978, 0.2453925, 0.2955595, 0.4310465, -0.4460626, 0.1839536, -0.7257414, 0.5041676, 0.1485058, -0.1334260, 0.1255911, -0.4062574, -0.4474573, -0.7337996, -0.2697725, -0.5377424, 0.5467315, 0.6846984, -0.3287799, 0.1000489, 0.4520352, -0.9347439, -0.2513491, -0.3346239, 0.0061692, -0.4824137, -0.0903534, 0.3089672, -0.4130999, 0.3327775, -0.2143817, -0.9830990, -0.2396346, -0.0450194, -0.1193180, 0.5592582, -0.0670332, 0.3773968, 0.3041647, -0.5477754, 0.3829767, -0.8233839, 0.2352632, -0.2140426, -0.0681271, 0.7496400, 0.0010422, -0.5149066, 0.3962165, 0.0286934, -0.3420463, 0.2205610, 0.0713883, -0.5289254, -0.3971625, 0.1743137, -0.0392085, 0.0710779, 0.5233357, -0.0270679, 0.1416157, 0.2691749, 0.0418360, -0.4624123, 0.8702814, 0.6662129, -0.3119313, -0.3842922, 0.5047199, 0.2577961, 0.6803551, 0.2150280, -0.1294974, 0.4010580, -0.2456381, -0.1381408, 0.0709790, -0.1402726, 0.5885313, 0.0798605, 0.2528214, -0.1714420, 0.2251729, -0.0260415, -0.2119011, -0.0004062, 0.4649679, 0.2649719, -0.6045222, 0.0059257, 0.6060150, 0.3080983, -0.2360935, 0.3256345, -0.1517266, 0.7115394, 0.0378239, -0.8116732, -0.4311590, -0.1865689, 0.2685015, -0.5246933, -0.4468614, 0.7018979, 0.2205562, -0.5012124, 0.4609953, -0.2838709, -0.2230803, 0.6338413, 0.0910846, 0.6526951, 0.5136721, -0.7533792, -0.0512881, -0.0200544, 0.2627751, 0.0547997, -0.2175144, -0.0287902, -0.0710211, -0.0360372, -0.3392018, -0.0165402, 0.0776446, -0.3524919, 0.9502817, 0.1958991, 0.9899300, -0.0530503, 0.6661442, -0.2469852, -0.0567077, -0.7468247, -0.1036779, -0.0270755, -0.0705009, 0.8887439, -0.0054396, -0.1052149, -0.3459312, 0.0104819, -0.9879959, -0.1269459, 0.0095474, -0.1208381, 0.5820065, 0.8174627, 0.5110189, 0.1183444, -0.2511392, 0.3873693, -0.2764375, -0.3085285, -0.4501543, -0.0304712, -0.0822825, -0.0657208, -0.3129270, -0.1761932, -0.4307203, 0.5712644, -0.5045812, -0.8792002, -0.3981718, -0.2488558, -0.0810292, 0.6585684, -0.0507373, -0.3308088, -0.0378485, 0.1000071, -0.9969165, 0.6025984, 0.1448482, 0.2735309, -0.1568811, 0.1283598, -0.0529241, -0.0175648, 0.1987768, -0.4829852, 0.5331608, 0.3158444, 0.4115242, 0.2369174, -0.1987149, -0.1903567, -0.0096301, -0.1208199, 0.4374491, 0.2658187, -0.2717004, -0.2795229, 0.4246548, -0.1353256, -0.6380480, -0.2896071, -0.1968158, -0.5622057, -0.0274235, 0.0211893, -0.2827020, 0.1256325, -0.1401717, -0.4318634, -0.2532370, -0.4715624, -0.3346340, -0.2412303, -0.2065689, 0.1101741, -0.2801111, -0.2898496, 0.6122703, 0.3237398, 0.2604947, -0.1387750, -0.4275903, -0.2575233, -0.1452403, 0.2332416, -0.6058192, 0.0421624, 0.2823671, 0.5745460, 0.1468100, -0.6517842, 0.1307395, 0.2129969, 0.1123609, 0.6436073, 0.3583062, -0.7006899, -0.6235791, 0.1012765, 0.4833807, -0.2164012, 0.3174319, -0.2421488, 0.1949999, -0.3639303, 0.1303357, -0.2551977, 0.5449184, 0.0972559, -0.0165217, 0.0748520, -0.5632703, 0.3749842, 0.5711828, -0.2764795, 0.2570961, -0.1417056, 0.1352017, 0.2488137, -0.1430421, -0.6592633, -0.1053670, -0.5914569, -0.2068115, -0.0360014, -0.1908494, -0.1126712, 0.6200185, -0.3033996, 0.2479185, -0.5354383, -0.0815322, -0.4062784, -0.7299312, -0.0181123, -0.1143414, 0.2432426, -0.2370709, 0.4181343, -0.1702272, 0.1555868, 0.6000183, 0.2932770, -0.4713635, -0.1884157, -0.0838478, 0.2915228, -0.1425629, 0.4485802, 0.3672392, -0.2017834, 0.7560754, -0.1567489, -0.3189548, -0.1184470, -0.0248713, 0.3640257, -0.2194670, 0.0035770, -0.7139682, -0.6988228, -0.1643608, 0.4685632, -0.6154510, -0.1108802, 0.4189952, -0.2696204, -0.2226344, 0.6453197, -0.4099832, -0.1464547, 0.6804653, 0.2111713, -0.0487523, -0.4520475, 0.6773109, 0.5319471, -0.7205145, -0.0031495, -0.4816717, 0.4633887, 0.2801552, 0.8017807, -0.0056228, 0.5307806, -0.2296500, -0.1119379, -0.0937511, 0.4962352, 0.6471056, 0.0097835, 0.1804457, 0.2120426, -0.5723190, 0.6145483, 0.2661770, -0.1218399, -0.0376789, -0.8482553, 0.1148047, 0.5673710, 0.4326028, -0.1791397, 0.4309821, 0.3428395, 0.3758696, -0.3130934, 0.1026937, -0.1321842, -0.4182879, 0.3225609, -0.3422794, 0.3394066, 0.4068254, 0.2693450, -0.3677244, -0.1412279, 0.1851380, 0.1157040, -0.1911470, -0.4608883, -0.5667409, -0.0896914, -0.0519190, 0.0163457, -0.0925636, 0.1829675, 0.4344279, -0.3151324, -0.3209172, -0.0211479, 0.0245387, 0.2706331, -0.5984123, 0.6334837, 0.4190237, -0.0182949, -0.3301620, -0.2879103, 0.0018343, -0.4129681, -0.2398111, 0.1733974, -0.2719053, -0.2507084, -0.1114965, 0.4468151, -0.2085199, 0.8843331, -0.5143257, -0.3844958, 0.3530841, -0.4888030, -0.8427774, 0.0392108, -0.0629108, -0.0674795, 0.2541030, 0.4733599, 0.1478376, 0.0374127, 0.1069654, 0.6756825, -0.4565399, 0.3805986, 0.0211127, -0.0919686, -0.0564086, 0.6740347, -0.2017608, -0.5802438, 0.0839983, -0.3799431, -0.5477962, 0.0404603, 0.1556185, -0.2987391, -0.0770976, -0.1091573, -0.1394363, 0.0624940, -0.0051048, -0.2217293, -0.0116685, -0.2652972, -0.4898943, 0.4107394, 0.7043540, -0.4245385, 0.1434255, 0.2083053, -0.1951329, 0.2684735, -0.7460120, -0.7548658, -0.4924192, 0.1640274, 0.1848326, 0.6358710, 0.1344907, 0.5189984, -0.4436553, -0.4696105, 0.0094744, -0.0861150, 0.0229045, -0.0499870, -0.0581277, -0.1060178, 0.0053327, -0.6392328, -0.0864008, -0.2261026, 0.4604306, -0.1469050, -0.3459553, -0.3713862, 0.1009888, 0.4600562, -0.2752965, -0.2515304, 0.0054153, -0.4654306, -0.2059799, 0.3893725, -0.3719063, 0.9732055, -0.1566235, -0.0056796, 0.4250385, 0.4161123, -0.1684380, 0.3143854, 0.0841153, -0.5561082, -0.5392839, -0.0518123, 0.0084646, -0.5104954, -0.4074082, -0.2654765, -0.1706443, -0.2012838, 0.0996250, 0.5348899, -0.3212292, 0.0279111, 0.4409153, -0.0733668, -0.3157476, 0.2201890, 0.5852685, 0.3743167, -0.4457265, 0.6879581, 0.5727988, -0.0127938, -0.0669978, 0.2979497, -0.0793956, 0.8807490, -0.3121393, -0.1018486, -0.4692790, -0.5356833, 0.6681938, 0.0762757, 0.8421506, 0.0928788, 0.0884886, 0.7729417, -0.0427143, -0.6985802, 0.0901608, -0.0897577, 0.4429254, 0.1738392, -0.3835047, -0.1497885, 0.4881451, 0.4871210, 0.6227689, -0.1894698, 0.4882917, -0.2485533, 0.1017998, -0.3992333, 0.1732984, -0.5791664, -0.2829333, -0.1259296, 0.0299428, -0.5307549, 0.4158203, 0.2341361, 0.6948742, -0.0758892, 0.1654231, 0.1046797, -0.1685892, -0.2524762, -0.2339174, 0.6002724, -0.3642885, -0.7158281, -0.4080583, -0.1495689, -0.1222212, -0.4698065, -0.3764416, -0.0385023, 0.5663286, -0.0028807, 0.5078102, 0.1759402, -0.1101223, -0.0008739, -0.8106045, 0.4210749, 0.5254396, -0.3651589, 0.3107290, -0.6465207, -0.0274516, -0.1380370, -0.2166987, 0.1128855, -0.1429198, 0.3751044, -0.3220241, -0.6172190, -0.3776439, 0.0503608, 0.6298917, 0.5952749, -0.0613570, -0.0025561, 0.0847064, -0.0676831, -0.0185508, 0.2253444, 0.5181200, 0.2666230, -0.2000332, -0.3998960, -0.2392776, -0.2738348, 0.6440446, 0.4599056, 0.0625810, -0.0487380, -0.1772905, 0.3553195, 0.1552434, -0.1977257, 0.0929035, 0.0740374, 0.2937862, -0.3567531, 0.6503553, -0.5355415, 0.3574330, 0.2350570, -0.5034111, -0.4689989, -0.4104354, 0.7610339, -0.3226908, -0.3931042, -0.2286807, 0.0049655, 0.0152896, -0.7794613, -0.2237818, 0.1115377, 0.0380182, -0.0686986, -0.2583562, -0.3301169, 0.3369863, 0.5417046, 0.3615724, 0.5526505, 0.4211172, -0.0229663, 0.4660217, -0.1892349, 0.1662122, 0.5859991, -0.8109868, 0.2797194, -0.4874364, 0.3235857, -0.1402923, -0.3597542, -0.6238845, 0.3465844, -0.7036927, 0.6990690, -0.0758342, 0.0568881, 0.1131905, 0.5704596, 0.3215455, -0.1943299, -0.0209438, -0.1981271, -0.0111908, 0.8045753, -0.0550554, -0.5994763, -0.1454617, -0.1234638, 0.1892061, 0.6723409, -0.0097266, -0.5477560, -0.1755619, -0.6633577, 0.1002661, 0.0110380, 0.0966698, -0.2072564, -0.9014037, 0.0593431, 0.2234110, 0.0678205, 0.0330592, 0.9013993, 0.6549418, -0.5924077, 0.0791692, 0.8243925, -0.1164970, -0.1532227, -0.1309056, -0.3995239, 0.3586133, 0.3389484, -0.1874024, 0.3303365, 0.3454030, -0.4691856, 0.1846963, -0.0951042, 0.1981746, -0.7523780, 0.1149265, -0.2002662, 0.0008782, 0.7401734, -0.5938030, -0.5380508, 0.5688407, -0.4613968, -0.1344523, -0.3534653, 0.3273763, -0.4637185, 0.1366088, 0.1667381, -0.1378402, -0.1297728, 0.6033648, -0.1093729, -0.2926512, -0.2436088, -0.3737485, -0.4990194, -0.2361060, -0.0323743, 0.0256822, -0.2800597, 0.2496714, -0.1200114, 0.2102847, 0.0391846, -0.0256815, -0.0608680, 0.1517633, -0.2104891, 0.5798159, 0.5036324, 0.2673663, -0.5603886, -0.6418123, -0.0380370, -0.4238583, -0.0474793, 0.4206056, 0.4502858, -0.0282572, 0.1335215, 0.1841695, 0.3139529, -0.2555321, -0.3536528, -0.2462268, -0.2314686, 0.6125886, 0.0932567, 0.2830828, -0.2991113, 0.1793459, 0.1330699, 0.9709337, 0.2052479, -0.2758406, -0.0465570, 0.1957047, 0.6417866, -0.1821493, -0.1480957, 0.3967887, 0.4150182, -0.4728568, -0.2439146, 0.3826443, 0.0604633, -0.1937340, -0.4544738, -0.0327363, -0.6986708, 0.1973247, 0.0603123, 0.5044206, 0.4201679, -0.0034240, 0.0224812, 0.0803068, 0.4229256, -0.1096145, -0.3179971, 0.5733486, 0.2978368, 0.3283274, -0.1619789, -0.5907605, -0.1592661, -0.8329204, 0.0273967, 0.1206657, -0.0417481, 0.3125283, -0.4695044, 0.0942093, 0.1509429, -0.4682147, -0.6712795, -0.2156029, 0.7423410, 0.3697374, 0.5738577, 0.3476117, 0.7818450, 0.3648634, 0.3486893, 0.4649544, -0.3137062, 0.3310313, -0.0357288, 0.0338013, -0.1364991, -0.0312758, 0.1228728, -0.1837775, 0.3211083, 0.1164657, -0.2968632, -0.3844156, -0.7882754, 0.4251964, 0.5877850, 0.3759927, -0.4954813, -0.0601461, -0.1845521, 0.0207190, -0.5601029, -0.5633143, -0.3414793, -0.5060310, -0.3951876, -0.2921290, -0.1629978, -0.6782371, 0.0485350, -0.0168427, 0.2968496, -0.6785189, 0.3753273, 0.0969660, -0.0852890, -0.1667543, 0.1412382, -0.2238865, 0.2694520, 0.6180716, -0.4743220, -0.0343888, -0.2413464, -0.5812589, -0.4887220, 0.4285528, 0.0840203, 0.3387052, -0.1471830, 0.6070080, -0.0949825, -0.2114470, -0.0212944, -0.3793864, -0.3176905, 0.2559648, -0.3671533, 0.0455372, 0.5326767, -0.3031026, -0.2423423, -0.0732671, 0.3793512, 0.4536978, -0.1965127, -0.2909301, -0.0726039, -0.1909033, 0.0481721, -0.0356503, -0.2160332, 0.2405788, 0.2113202, 0.0736374, -0.1218693, -0.4353448, 0.1021549, -0.2303893, 0.1143259, -0.3335341, -0.6048393, 0.2116112, 0.7334796, 0.0063247, 0.2788712, 0.4190295, 0.4436712, -0.0299087};

#endif

#endif
