//Numpy array shape [1, 20, 52]
//Min -0.999068200588
//Max 1.000000000000
//Number of zeros 0

#ifndef W26_H_
#define W26_H_

#ifdef __HLS4ML_LOAD_TXT_WEIGHTS__
phi1_weight_t w26[1040];
#else
phi1_weight_t w26[1040] = {-0.2703446, 0.4042227, 0.2014688, 0.2329664, -0.4296470, 0.1090652, -0.0480621, 0.0561205, -0.1893219, -0.5113296, 0.2094765, -0.0798464, -0.6118628, 0.0245941, 0.0198778, -0.1419311, 0.1153543, -0.1875384, 0.4022592, -0.1999561, -0.1165244, 0.0218567, 0.8755853, 0.0021656, -0.1656534, -0.1100556, 0.1615397, 0.4290001, -0.1177117, -0.3335157, 0.3190195, -0.4728681, -0.0795774, -0.0069898, 0.1848895, 0.0754727, -0.2736925, -0.7237292, 0.3700797, 0.0074109, -0.0977266, 0.9922741, -0.1981237, -0.0905015, 0.2844647, 0.0612408, 0.1378776, 0.2901756, 0.2325102, -0.0274863, 0.5395448, -0.1429704, -0.0665040, -0.3479603, -0.4112277, -0.2391900, -0.6081117, 0.2924044, 0.1132706, -0.4317706, 0.9930835, 0.5394099, -0.2923428, 0.1166826, 0.3129916, 0.0778453, 0.2086883, 0.1154483, -0.6503274, 0.2940341, -0.3211320, 0.0856096, -0.3120265, 0.0909642, -0.1492760, -0.6262632, -0.0034122, -0.0899960, -0.0233738, 0.1455415, 0.0059220, -0.0345580, 0.2997414, -0.0416701, 0.2622593, 0.2945126, 0.2691813, -0.0975155, -0.0809395, -0.5415606, -0.6251199, 0.1670884, 0.3379883, 0.0295030, 0.1648397, 0.3578749, 0.2220825, -0.1790956, 0.0873677, -0.3805041, -0.6161982, 0.0493436, 0.2071305, 0.1220227, 0.2456584, 0.2305647, 0.1616312, -0.0928513, 0.0752993, 0.6801254, 0.0516865, 0.1519137, 0.0901769, -0.3724642, 0.1244163, 0.0744945, 0.0643946, -0.6135616, -0.2051287, 0.2633886, 0.7334291, -0.4882584, 0.0681686, -0.5653647, 0.5961162, -0.5542921, 0.9960342, -0.0347288, -0.1878183, -0.8183285, -0.2497233, -0.2071047, 0.1923431, 0.0040701, 0.6587201, -0.2704848, 0.0409197, -0.2222085, 0.0600617, 0.4643623, 0.5802997, -0.1925261, -0.3574892, 0.1445241, 0.2751907, 0.5748352, 0.3014811, -0.4375449, -0.0448217, -0.0340797, -0.3665656, 0.1588507, 0.3524861, 0.0827197, 0.4255536, -0.2574218, -0.2111596, 0.1706162, 0.0396606, 0.9736121, 0.1702165, -0.2726339, 0.2137511, -0.9376362, 0.3223332, 0.0299733, 0.4102323, 0.4500182, 0.0351680, -0.0220222, -0.4735475, 0.9182717, 0.0343354, 0.0329179, -0.3783816, -0.7493828, 0.3719095, 0.0965190, -0.0568407, -0.1961759, 0.1994563, 0.4052374, -0.3294643, -0.0756242, -0.2097403, -0.0076062, 0.0692362, -0.0543441, -0.9943776, -0.9863340, -0.1159930, 0.2537743, 0.3464951, -0.3725953, 0.0728467, -0.2849848, -0.2339154, -0.0182780, -0.1388383, -0.0696664, 0.1978600, 0.8897001, -0.2564975, -0.3084752, -0.1731275, -0.3632552, 0.1817695, -0.3730627, -0.1553904, -0.3474713, 0.0012772, 0.3267171, 0.0986696, -0.2720532, 0.2722067, 1.0000000, -0.0987978, -0.2601824, -0.3702860, 0.0683157, -0.0557094, 0.0275656, -0.0873537, 0.3188992, 0.0402658, -0.0519133, -0.3667951, -0.4458961, 0.1721290, 0.0016075, -0.0132290, -0.4627140, 0.0439580, -0.2428123, -0.1951525, 0.1107503, -0.6100066, -0.0155744, 0.0950861, -0.0425198, -0.2667830, 0.9740878, 0.0390753, -0.0464425, 0.3662049, 0.1950889, 0.0995428, -0.1325586, -0.8411782, -0.0976163, 0.1229562, -0.1479299, 0.0594281, -0.0157786, -0.1915357, -0.0539238, -0.0716062, 0.9937370, -0.3357824, 0.1981185, -0.1408477, -0.0494232, -0.1364615, -0.0688721, -0.1020911, -0.2914031, 0.3870767, -0.4667257, -0.1853524, -0.0802416, 0.1032894, -0.6282315, -0.1715772, -0.1309494, -0.0883213, -0.4707714, -0.1676162, 0.5066692, -0.0545772, -0.1910361, 0.2092079, -0.3797159, 0.4291175, -0.7236124, 0.5059474, -0.4399906, -0.0194331, -0.1801437, -0.4921529, -0.4016178, -0.0516135, 0.4227922, 0.2626362, 0.7275447, -0.3359728, 0.3510970, -0.0990496, -0.0768919, 0.4345246, -0.4557811, -0.4947025, 0.7821515, -0.2175003, -0.2730716, 0.4550252, 0.3463191, -0.1962708, -0.3735227, 0.3599291, -0.3270433, -0.0913112, 0.1895705, -0.1530005, 0.0140334, -0.3083743, 0.1898978, -0.2790909, -0.1075943, -0.8434064, -0.6608599, 0.0138797, -0.1438173, -0.1429423, 0.1237736, -0.0740313, 0.2585872, 0.2768363, -0.2669511, 0.2148032, 0.0451277, -0.4426583, 0.4065538, -0.1943995, -0.2751186, -0.1853879, -0.4118213, 0.2615011, -0.2919405, 0.0505154, -0.1598817, 0.3177805, -0.5230200, 0.3588575, -0.9589391, -0.0839061, 0.5546240, 0.6357026, -0.5053093, 0.1375571, -0.3385507, 0.2868923, 0.0921803, 0.2178156, -0.5335551, -0.3893216, -0.5387827, 0.4096858, 0.2235852, -0.2802925, -0.2051809, 0.0634914, -0.0272643, -0.5949501, -0.5167229, 0.0436744, 0.0323282, -0.5333444, -0.0554062, -0.1238652, 0.0375222, -0.0365218, -0.1357686, 0.0243237, -0.6891266, 0.0978885, -0.1448056, -0.4028303, 0.0806411, 0.7108406, 0.5082839, -0.1109529, 0.5499352, -0.2882985, -0.3673119, -0.2386291, 0.1333980, 0.0069426, -0.7962672, 0.4506211, -0.0618470, -0.0253267, -0.0058613, -0.2309167, 0.3185054, -0.0172299, -0.3975316, -0.2826451, 0.2114576, -0.0054652, 0.0366619, -0.0496342, -0.8619733, -0.1766637, 0.1191457, -0.3199092, -0.9984415, -0.0147055, -0.1591567, 0.6587505, 0.1907290, -0.5311070, -0.1077168, 0.2171907, -0.0486330, -0.3662485, 0.3905138, 0.1522429, 0.0735245, -0.1351443, -0.0038563, 0.0823232, 0.5795009, -0.2612357, -0.0854215, -0.9398999, 0.6107367, -0.3169402, -0.1513557, 0.2034181, 0.5125889, -0.5138226, -0.1850153, -0.3280151, -0.3455840, 0.3462352, 0.2929783, 0.2266254, 0.0021955, 0.0313745, 0.0788675, -0.3176619, 0.0417732, 0.5704113, 0.3802107, -0.2486799, 0.3695619, -0.0104463, 0.0637829, -0.0439522, 0.2246522, -0.0021491, -0.1110360, 0.2019011, -0.6556221, -0.8343830, -0.0063761, -0.2524476, 0.2869676, -0.5751848, -0.2329613, 0.7301953, 0.7604124, 0.0432341, 0.1859556, -0.0232337, -0.0579922, 0.1644677, 0.3778914, -0.2566127, 0.2887984, 0.1111687, 0.7861412, -0.0709290, -0.1832457, 0.5825092, 0.2356148, -0.5572979, -0.5930836, 0.4133070, 0.4495322, 0.3735297, -0.1936270, 0.1537093, 0.0157108, 0.0288349, -0.1803887, -0.5577689, 0.2599693, -0.5230602, 0.3576030, 0.2025623, 0.0799815, -0.0444840, -0.1200763, 0.5806465, 0.2579834, -0.0892955, 0.4106640, 0.3458807, -0.0413493, -0.9013450, 0.0065022, -0.6743562, -0.0118004, 0.1607695, -0.0672132, 0.2787824, -0.3598376, 0.3174551, 0.0222734, 0.3660218, -0.2768071, 0.2505555, -0.8049281, 0.2110431, -0.3647100, -0.0356959, -0.3370947, -0.1547271, 0.3361478, -0.1243979, 0.6423610, -0.0092636, 0.0949739, -0.4170755, 0.6924589, -0.3765156, 0.2344132, -0.0444021, -0.0544727, 0.4866504, -0.5531623, -0.0469231, -0.1901707, -0.4510722, -0.0609385, 0.4357662, -0.3712673, 0.1588479, 0.2057980, -0.2835461, 0.2227593, -0.0184099, -0.3180611, -0.0301262, -0.2882016, -0.6644748, -0.1465121, -0.4166292, 0.3523145, -0.0773173, 0.1725944, -0.7531577, 0.0004522, 0.1795387, 0.4277715, -0.1883363, 0.1797471, -0.4847762, -0.4289930, -0.1234448, 0.0098358, -0.4775792, -0.1752664, -0.3325750, -0.1968611, 0.5159228, -0.2344782, 0.8045574, -0.3572373, 0.3032978, -0.4411215, 0.0191981, -0.2798686, -0.1534853, -0.3337600, -0.3042180, -0.3017240, 0.1739149, -0.4636440, 0.3697160, -0.9249783, 0.1363111, -0.0138904, -0.5202772, 0.4479662, 0.1124446, -0.2542249, 0.3567941, 0.5184522, -0.3384790, -0.1674584, -0.0116472, -0.1984694, -0.3293543, -0.5057046, 0.5168312, 0.0978264, 0.6124009, 0.1334447, 0.1703607, -0.4928872, -0.4511825, 0.4655347, 0.2192880, 0.9989865, -0.0897806, 0.4003668, 0.5850407, -0.8533461, -0.3562343, 0.3571561, -0.2720010, -0.1999547, 0.0173413, 0.2828889, 0.4016520, 0.0207201, -0.4693887, 0.5242773, -0.4004493, -0.0238231, -0.3711169, 0.2717400, 0.4843481, -0.1116336, 0.1967892, 0.0469811, -0.0622829, -0.2523286, 0.3297091, 0.2326148, 0.0927915, 0.4538022, -0.3237746, 0.1652094, 0.2432839, 0.0197007, 0.7873436, -0.4649320, 0.6838752, 0.0759961, 0.4979154, -0.0464277, 0.0724418, 0.2237357, 0.2203395, 0.1912213, 0.1511321, -0.6005153, -0.3209364, -0.4571216, -0.3990901, -0.4487793, 0.3693601, 0.2766870, -0.4436758, 0.2202587, 0.1188033, -0.1411022, 0.0044674, -0.8104615, -0.3167373, -0.3708843, -0.1776851, 0.0579013, 0.1418343, 0.0097251, 0.1429889, -0.3671309, -0.2562189, -0.0844281, 0.4484071, 0.1633607, 0.6791906, -0.2916220, -0.0715913, -0.0564148, 0.1610481, 0.1324912, 0.2319913, -0.4065662, -0.7117131, -0.6786611, 0.0058340, 0.3662744, -0.6896424, 0.0586228, 0.2420496, 0.1446146, -0.9375173, -0.2895730, 0.7202910, 0.1185096, -0.1878276, 0.4226115, 0.1810616, -0.4062417, 0.0614851, 0.2589918, -0.0930558, 0.8117267, 0.3475708, 0.5248594, 0.8771608, -0.3943481, 0.4520767, -0.2069687, -0.3853090, 0.4720445, 0.0231445, -0.1702369, 0.0338282, -0.0351087, 0.1609599, -0.3317785, -0.3471319, -0.0792268, 0.1662804, 0.0102541, -0.5289633, 0.1339842, 0.4999183, -0.0907642, -0.3535964, 0.1901584, 0.6603261, 0.7078069, -0.0853582, -0.1704149, 0.2627064, -0.1396129, 0.1628243, 0.1649585, 0.2178498, 0.0087192, -0.1440302, 0.0247431, -0.1330578, -0.1580925, 0.0441674, 0.0724303, 0.0097379, -0.0391420, -0.1700905, -0.4062533, 0.1293531, -0.0515567, -0.1533627, 0.0892093, 0.2162819, 0.1088778, 0.3092630, -0.0483830, -0.0026819, -0.1451929, 0.0433340, 0.5518169, 0.1020155, -0.4335625, 0.0522869, 0.1915734, -0.1460247, -0.1049212, -0.2722782, 0.2768113, 0.0512405, 0.5732511, -0.0513285, -0.4664423, 0.1434785, 0.7115877, -0.0226317, -0.0676395, 0.0066324, 0.0677827, -0.2937389, -0.0141602, 0.1884308, -0.0554382, -0.0821721, -0.0038546, -0.0304702, -0.3551719, 0.4790342, -0.5716091, 0.5060657, -0.4548358, -0.1729236, 0.1329850, -0.2896807, 0.2726706, -0.1449710, 0.0407593, -0.3614182, 0.2408737, -0.5027028, -0.1486098, -0.0335537, 0.2068744, -0.1199704, 0.1470278, 0.1054638, 0.0142857, 0.1790584, 0.4527440, 0.4859813, 0.0544447, 0.0634957, -0.4305147, 0.4031650, 0.4368346, 0.4811349, -0.4857547, -0.0693598, 0.2029099, -0.5012638, -0.2532871, -0.0307466, -0.4231364, -0.3493945, -0.3037533, -0.1669322, -0.5470758, -0.0274816, -0.0802692, -0.0941779, -0.4340107, 0.3215246, -0.0649179, 0.2870184, 0.0350409, 0.2623418, -0.6667010, -0.4159452, -0.0225130, -0.3759663, 0.1894046, 0.0729313, -0.7004853, -0.1981450, 0.0853401, 0.0720414, 0.4105147, 0.1399076, -0.0474798, 0.1050503, 0.0303102, -0.1777830, -0.2533782, 0.3235579, -0.5681100, 0.6888077, -0.2064316, -0.2461198, 0.4740967, 0.5183952, -0.3207369, 0.3090933, 0.5588043, -0.4719496, -0.1794575, -0.5425501, 0.1379282, -0.0130669, 0.3465533, 0.2778269, 0.0046327, 0.4208645, 0.0799526, -0.1577339, -0.0292159, 0.1056852, 0.1519150, 0.4479352, 0.3843990, 0.3242702, -0.1825771, -0.1756778, -0.0288564, -0.5535761, -0.7050548, -0.1169135, 0.3404799, 0.2410909, 0.6702420, 0.0989534, -0.1014408, -0.2471210, -0.3120036, -0.0271863, 0.5532447, -0.1140568, 0.2584696, -0.4249871, -0.2870727, 0.5934867, -0.0769529, -0.1704711, -0.2033037, 0.0576880, -0.0579147, -0.7475430, 0.6640646, -0.1647791, -0.3827457, 0.6511247, -0.5611759, 0.2086786, -0.3714073, 0.0041036, 0.3415694, -0.4548157, 0.3558389, 0.3872414, 0.0231333, -0.5890733, -0.4810552, 0.1976366, -0.3934411, 0.0995221, 0.2665752, 0.3910616, -0.2804878, 0.2448571, 0.1927091, -0.1172996, -0.2823135, -0.2648949, -0.2656498, 0.4805729, -0.6334606, -0.0505214, 0.2341157, 0.3833151, -0.3690787, -0.2266259, 0.9954271, -0.1980513, -0.1698788, -0.0008628, -0.6909383, -0.0133830, -0.1991758, -0.4561458, -0.2702883, -0.9990682, 0.7439343, 0.6741425, -0.1919943, 0.0063610, 0.0231389, -0.2612697, 0.1346894, -0.2979176, -0.2369763, -0.2050046, 0.1149261, -0.1821370, 0.2569052, -0.0741323, -0.3763442, 0.3003287, -0.4489974, -0.0014238, 0.0857004, 0.4098551, 0.9917752, 1.0000000, 0.4683732, 0.3577562, 0.3114536, -0.0193075, -0.2976218, -0.0634060, -0.1963129, 0.0606076, 0.1141636, -0.9970880, -0.0589254, 0.0198285, -0.0646390, -0.2731586, 0.1837735, 0.0583440, -0.1370459, 0.1631067, -0.1303188, -0.2135128, 0.1722018, 0.1377865, 0.0466296, 0.2811074, 0.1452862, 0.7083700, -0.0879835, -0.3995313, 0.1175445, -0.0401434, -0.4911406, 0.1025317, 0.0657079, -0.0786288, -0.6499522, 0.3892114, 0.0630451, 0.4553515, 0.2916229, -0.2086923, 0.0308441, 0.0273205, 0.3425871, 0.1447429, 0.2085162, -0.1839286, 0.0218919, 0.1586104, -0.0029918, -0.2915982, 0.0186994, -0.0026303, -0.1582590, 0.1254019, -0.0969575, -0.4985575, -0.1164444, 0.1845403, -0.1622232, -0.3898413, 0.0998252, 0.4383425, -0.5423179, -0.1828934, 0.1370417, -0.4302961, -0.4491390, -0.6920367, 0.1060302, 0.5160681, -0.0890380};

#endif

#endif
