//Numpy array shape [1, 52, 20]
//Min -0.606019854546
//Max 0.708212137222
//Number of zeros 0

#ifndef W27_H_
#define W27_H_

#ifdef __HLS4ML_LOAD_TXT_WEIGHTS__
phi2_weight_t w27[1040];
#else
phi2_weight_t w27[1040] = {-0.1832958, 0.3875917, -0.0635989, -0.1239232, -0.2090021, 0.0033907, 0.0576251, -0.4585252, 0.0654698, 0.2474509, 0.0531922, -0.1398762, -0.4240433, -0.1583897, -0.1918807, -0.0579869, -0.1330946, 0.3994396, 0.0457261, 0.1296829, -0.0312008, 0.4206097, -0.3485878, -0.2176137, 0.2424774, -0.2009492, 0.0139680, 0.0803569, -0.0467229, 0.3370765, 0.4819718, -0.0007311, -0.2852254, 0.1555645, -0.1425430, 0.0422010, 0.1146161, -0.1802194, -0.0073048, -0.0988903, 0.2232448, -0.0186206, 0.3023597, -0.4575410, -0.2885321, -0.2272050, 0.2007631, 0.1160298, 0.3926766, 0.0237740, 0.2013648, -0.2286614, -0.1508602, -0.1279907, -0.0320655, -0.3083039, -0.1109177, -0.2295244, 0.1704838, -0.4386829, 0.1230971, -0.0203148, 0.0547087, 0.3326142, -0.2495092, -0.1351945, -0.2320842, 0.2687233, -0.1617076, 0.0011785, -0.0293305, 0.2791317, 0.0016129, -0.0994117, -0.0230951, -0.2045522, -0.5379191, -0.0163474, -0.1694556, -0.3238153, 0.0997031, 0.2634957, 0.2673931, 0.3907091, 0.0187225, 0.1201744, 0.1186484, 0.3435052, 0.1068631, -0.1489739, 0.0040143, 0.1338433, -0.3453810, 0.0873655, 0.1216236, -0.1490427, -0.1972521, 0.0796284, -0.1948844, 0.2407854, -0.1705084, 0.2153068, 0.0542595, 0.2195848, -0.1544044, -0.0170073, 0.1426543, -0.1632470, 0.0288128, -0.3490925, -0.0083444, -0.1755875, 0.2086265, 0.1992156, 0.1911249, 0.0427917, -0.2547594, -0.1085660, -0.1099498, -0.1191743, -0.0854695, -0.2247626, 0.2788950, -0.0324542, 0.0477517, -0.5269099, -0.2481577, 0.0979028, 0.2736158, -0.0665229, -0.2675870, 0.1196978, 0.1604194, 0.1508637, -0.0729188, -0.2407261, 0.2053363, -0.2605192, 0.2775803, 0.1636367, -0.1269144, 0.0580555, 0.0503869, 0.2610209, 0.1026792, 0.1963153, 0.1119162, 0.2854761, 0.0703554, 0.4262365, -0.0825925, 0.3027894, -0.1086717, 0.0656936, -0.0238589, 0.3064574, 0.3112599, -0.2980672, 0.2644217, 0.3590316, 0.2375243, -0.2463496, -0.2812989, 0.1919567, -0.2636479, 0.2725379, 0.3234963, 0.0578550, -0.0115962, 0.1924511, 0.2307958, -0.1314064, -0.3157807, -0.1298149, 0.0429413, -0.2951809, 0.0189125, -0.3317988, 0.1891413, -0.0917776, 0.0596902, -0.0101643, 0.0390026, 0.1005970, -0.0619983, 0.0241926, 0.0696418, -0.0025716, 0.2713949, 0.2638541, 0.1766541, 0.0357566, 0.0059888, 0.1633771, 0.0268634, -0.1054808, -0.4111690, 0.1730069, -0.0935010, -0.1441181, 0.2789572, -0.0465542, -0.1340589, 0.0426469, 0.3159493, -0.5474243, 0.0735471, -0.1477594, -0.1520441, 0.1000661, 0.0226002, 0.2738757, 0.0070364, -0.2430134, -0.0027303, 0.1322465, -0.1047855, -0.0895212, 0.1709527, 0.1979604, 0.1368623, 0.4147820, -0.1376825, 0.1368410, -0.0968416, 0.0426967, -0.2385672, -0.2120985, -0.3805179, -0.3223425, -0.2537749, -0.1076433, 0.0412919, -0.3311564, -0.0151825, -0.3294336, -0.3914855, -0.0413641, 0.4959768, 0.1585370, -0.0421668, 0.2127003, 0.1592688, 0.4397632, 0.5346633, -0.0234352, 0.1112613, -0.1029115, 0.2390099, 0.3269314, -0.0650119, -0.1436320, 0.0629640, -0.0933284, 0.2882552, -0.0284401, 0.0893466, -0.3010040, -0.2562105, -0.0144931, 0.0317588, -0.1785906, 0.3737395, 0.1517590, -0.0441428, -0.2963782, -0.2022468, 0.0271418, -0.0701430, 0.3173710, 0.1675047, 0.3578403, -0.2794003, 0.0676225, -0.1086171, -0.1390486, 0.0171367, 0.2374707, 0.0002422, -0.2850272, 0.0051302, -0.2104083, 0.0525826, -0.1028824, -0.2703479, 0.1200974, 0.1860459, 0.2148070, 0.1133751, 0.2678977, 0.0741668, 0.0617965, 0.0720266, 0.1117538, -0.1226270, -0.1675404, 0.0877315, -0.2031329, 0.0334839, -0.2062754, 0.0513390, 0.2176055, 0.1100996, -0.3497735, 0.1174262, 0.1378564, -0.1635219, -0.0792142, -0.1015964, 0.2081020, -0.0079786, 0.0890119, -0.2060192, 0.2264398, 0.0506688, 0.1277064, -0.1709670, 0.1617668, 0.0271422, -0.0616298, -0.3690204, -0.1097425, -0.1442930, -0.0669907, -0.0985953, 0.1834900, 0.2991900, 0.0530659, -0.0875293, 0.3070541, 0.3371149, -0.3379334, 0.1611349, 0.4077702, -0.0535422, -0.3300433, 0.0597438, 0.3072019, -0.1959147, -0.2227236, 0.0318513, 0.1429646, 0.0967176, -0.3207816, 0.3190328, 0.0422391, 0.0969940, 0.1040479, -0.2180561, -0.3573147, -0.2537554, -0.3714822, 0.0880611, -0.1700783, 0.1824860, 0.2311991, 0.1063688, 0.1218400, 0.0944281, -0.2885812, -0.0201327, 0.3069418, 0.0935382, -0.2163252, 0.1335569, 0.0976247, 0.2472247, 0.1214548, -0.2609674, 0.0588776, 0.0593679, -0.0561534, -0.2202066, 0.0371522, -0.2365277, 0.2668958, 0.3249956, -0.1932294, 0.3949389, 0.0463074, -0.0464291, -0.0724582, -0.0666680, -0.0291272, -0.0139522, 0.0911244, 0.1632239, 0.1484490, -0.0245985, 0.2642287, -0.1154229, 0.0672637, 0.0120447, 0.0408514, 0.0563759, 0.4788171, 0.2708708, 0.1599084, -0.0608248, 0.2040957, 0.1537262, 0.2011252, 0.1776805, -0.1124843, 0.3832524, 0.3378236, -0.0328190, 0.0074245, -0.0246256, 0.0349188, -0.0677675, -0.0825055, 0.3785650, 0.1272110, 0.0591622, 0.5311404, -0.2722272, -0.1082519, -0.0359388, -0.0403048, 0.0289813, -0.1433470, -0.2467189, 0.2012612, 0.1411276, -0.0528608, -0.1518451, -0.1904751, -0.3363386, -0.0549245, 0.2305608, -0.2372857, 0.2816289, -0.0472463, 0.1968297, -0.0977447, 0.4394435, -0.0147942, -0.2179195, 0.0258981, -0.0076921, 0.2824804, 0.1493704, 0.3389815, 0.0328813, -0.2778515, -0.2657681, 0.1831724, -0.2674460, -0.0816610, -0.1245595, -0.2909038, -0.3082198, 0.0262700, 0.1611571, -0.1096587, -0.3641852, -0.0207142, -0.1463463, -0.4337807, -0.0400855, -0.0128985, -0.1886171, -0.3588173, 0.3115537, 0.3843278, -0.0764784, -0.2188104, 0.0167546, 0.1872144, -0.2121784, 0.1416475, 0.1604489, -0.2238941, 0.1785928, 0.4306692, -0.0293745, 0.3398706, 0.0493783, 0.2613657, 0.2937030, -0.0119874, -0.0335375, -0.0963359, -0.0200515, -0.2332482, -0.1990777, 0.1811152, 0.1256773, -0.3219302, -0.0819821, -0.1348369, -0.0179163, 0.2520362, 0.1698666, 0.4485760, 0.2073424, 0.0311455, -0.1649832, 0.0888849, -0.0173862, -0.1996913, 0.3863893, -0.0205903, 0.1179934, 0.2156266, 0.2745788, -0.2673327, 0.1220642, 0.1813985, 0.0078427, -0.1562425, 0.2099208, -0.2187498, 0.0533287, -0.0079083, -0.2082018, -0.2121385, 0.2172756, -0.0958689, -0.0467468, -0.1957732, 0.0233640, -0.0312316, 0.1816844, -0.0686101, 0.1569437, -0.0729840, -0.4161904, -0.2095439, -0.1362835, 0.0233590, 0.1216797, -0.2369718, 0.2150822, 0.0691508, 0.0079059, 0.0695811, -0.1294948, -0.0344130, -0.2908113, 0.0597396, -0.2671221, -0.0062223, 0.0047019, 0.3983156, -0.3082244, 0.1057189, -0.1861421, -0.0788417, 0.2912298, 0.1268397, 0.3630532, 0.0439425, -0.2897760, -0.1436143, 0.0946248, -0.2715572, -0.1748229, 0.0085113, -0.0201442, -0.3170374, -0.1740272, -0.0737014, 0.1466337, -0.0606726, -0.1177596, -0.3506070, 0.2805929, -0.3210292, -0.2313168, 0.1601525, -0.1043320, -0.0630204, 0.3086323, 0.2498118, 0.4834195, -0.0671351, 0.0653039, 0.3621277, -0.0762574, -0.1001091, 0.1943401, 0.2290086, 0.1027709, 0.2889729, 0.0158865, -0.1177997, 0.1638599, -0.3087713, 0.3439188, -0.1107958, -0.1685076, -0.3175601, 0.0588457, -0.0519778, 0.0143655, -0.0245321, -0.0411532, 0.3356691, 0.1236875, -0.0728559, -0.1584958, -0.3100791, 0.0644943, -0.2306532, -0.0843326, 0.3124195, 0.3733111, -0.3552641, 0.0207222, -0.2883191, -0.0112375, -0.3160761, 0.2384142, 0.1017719, 0.3015334, 0.1047050, 0.2430347, -0.0774602, 0.1232716, -0.0839587, -0.1675647, 0.0848645, 0.2187048, 0.1189298, -0.2472937, 0.1677679, -0.0125601, -0.1856308, -0.0659530, -0.2631068, 0.0488711, -0.0243521, -0.1680344, -0.0389056, -0.0743159, 0.0216672, -0.1597229, -0.3186010, -0.0080053, -0.3393515, 0.2409479, -0.2318240, -0.1471786, 0.2417864, 0.1044270, 0.2673894, -0.1824556, 0.1807617, 0.2767234, 0.1371650, -0.1949549, 0.1779822, 0.1301813, -0.0551209, 0.1958041, 0.1228562, -0.2316377, -0.1200661, 0.2296667, -0.0100317, -0.1975423, 0.2911048, 0.0706123, 0.1564933, -0.1582448, 0.3193752, -0.0519566, 0.0133525, -0.2417463, -0.0027533, 0.3599251, -0.1021935, -0.0133036, -0.1264397, 0.2560883, -0.1981811, -0.0621803, -0.1773516, 0.3421865, 0.0369966, 0.1454753, 0.3334052, -0.2777413, -0.3448672, -0.0253976, -0.0084576, -0.0720189, 0.2208692, 0.2386774, -0.2484409, -0.1620315, 0.1557005, -0.0415336, 0.0880629, -0.3803221, -0.0456155, -0.0903278, -0.2733502, -0.2501248, 0.2381080, 0.2672524, 0.1095181, -0.4146143, 0.3884147, 0.2600622, -0.6060199, -0.2055514, 0.3314988, -0.0476674, -0.1389133, -0.1248263, -0.0371227, -0.0822662, 0.3916087, -0.0178098, 0.0659211, 0.1833922, 0.0014183, 0.1509731, 0.2911564, -0.0587900, -0.2450042, 0.1150474, -0.0147333, -0.0373230, 0.0641019, -0.1478607, -0.1077954, -0.2231004, -0.1194794, 0.1309870, 0.1855039, 0.1377384, 0.1439216, 0.2935445, 0.3215832, 0.0862590, -0.4772033, 0.0600334, -0.0895220, -0.2181077, -0.0459151, 0.0746844, 0.0277307, -0.2345938, 0.4098307, -0.1712766, -0.1461703, -0.0599483, 0.0907523, -0.3600117, 0.2309455, -0.0306591, 0.0054288, -0.2214458, 0.3627025, 0.1903543, -0.3300093, 0.0184561, 0.0573598, -0.3156501, -0.1021621, -0.5120082, 0.0924085, -0.1919621, 0.0611400, 0.0323471, -0.3016703, -0.3282454, -0.0836519, -0.2130999, -0.1681454, -0.2485750, 0.2751473, -0.0070522, 0.1652738, -0.0863238, 0.1235315, -0.0530454, -0.2018695, -0.1239202, 0.1126090, -0.1970480, 0.4288629, 0.5245748, 0.1146195, -0.3999085, 0.3892629, 0.1372441, -0.1267924, -0.0446559, 0.2206247, 0.1588821, -0.2126705, 0.0841956, -0.1766331, 0.3239172, -0.0298258, -0.1442112, -0.2335345, -0.0065353, 0.0649253, -0.0471440, 0.4547172, 0.2228717, -0.1962719, -0.0862085, 0.1897350, 0.1569164, -0.0066437, 0.2221013, 0.0483331, 0.1196236, 0.1715329, -0.2379876, 0.0667669, -0.1558224, 0.0034643, -0.1006589, 0.2859185, 0.0656243, 0.0867570, 0.0329880, 0.2113947, -0.2947671, -0.1342596, -0.3654265, 0.5846936, 0.1459036, 0.1599762, 0.0561048, -0.0042164, -0.1292874, 0.1293151, 0.2138210, -0.1769315, -0.0132832, 0.1362552, -0.0861682, -0.2798572, 0.3853229, 0.2216196, 0.1622436, -0.0275318, 0.1518750, -0.0518439, -0.3848836, -0.3642415, -0.2152426, 0.1364145, 0.0721138, 0.1687445, 0.1057489, -0.0379126, 0.1077171, -0.0086364, -0.0804525, 0.4803885, -0.3820745, -0.0330823, -0.1153994, -0.1686940, -0.2517799, 0.1103573, -0.2470925, 0.1791110, -0.3417238, 0.2505365, -0.4764080, -0.0991080, 0.1520697, -0.1427402, 0.1705904, 0.2691455, -0.3480609, -0.0280005, 0.2235625, -0.0199464, 0.1977285, 0.1557111, -0.1020208, -0.0081732, -0.1297445, -0.1538413, -0.2283311, 0.3700514, 0.0949180, 0.1089669, 0.1449231, -0.1043320, -0.0103453, -0.0780586, -0.0877458, 0.3491126, -0.0398175, 0.2390622, 0.0318266, -0.0014411, 0.1875358, -0.2843732, -0.1289618, 0.3709789, 0.0787004, 0.0942227, 0.4024725, 0.2110183, 0.1616540, 0.3152888, -0.2175733, 0.3121479, -0.4426365, 0.1567227, -0.2922382, -0.0608076, 0.2836269, 0.1092064, -0.1537568, 0.2827770, 0.2004045, 0.0715369, 0.1900604, 0.1493617, -0.0879594, -0.1460497, -0.2336057, 0.1491435, 0.1648790, -0.0223778, 0.0835451, -0.0754858, 0.4128688, -0.2713242, -0.2125693, -0.2964447, 0.2129644, -0.0603122, 0.1937133, -0.1799609, 0.0847504, 0.0733941, 0.1932893, -0.2128923, -0.1755714, -0.2051290, -0.1727728, -0.0525799, 0.3206021, 0.1000318, 0.1892006, -0.0390361, 0.3273907, 0.3941138, -0.2309374, -0.1706464, 0.0276587, 0.1479137, 0.0610254, 0.4250824, 0.1359086, 0.1914952, -0.0838983, 0.0892913, -0.3891132, 0.4659296, 0.0730593, -0.2007016, -0.1465149, 0.1152270, 0.4436195, 0.4564659, -0.2558035, 0.1677782, 0.2640410, -0.1640693, -0.1339891, -0.0853875, 0.0000554, -0.0835221, -0.0052705, -0.0064353, 0.2993185, -0.0442221, -0.2588912, 0.2020926, -0.0878606, 0.7082121, -0.0406719, -0.0892563, 0.0048628, -0.0826274, 0.0200982, -0.0092002, 0.0992880, -0.2376659, -0.5237191, 0.0794803, 0.0036949, -0.3237447, 0.1338686, 0.0112869, 0.3182339, -0.2616368, 0.3557327, -0.3555165, 0.1853119, 0.0382385, 0.0691749, -0.0325962, 0.0024865, -0.3586685, 0.2561573, 0.0114353, 0.0543691, -0.0683727, -0.1490280, -0.2568463, -0.0582396, -0.2125571, -0.3958089, -0.0648353, -0.0602656, -0.1668833, -0.1927848, 0.3500295, -0.0084948, -0.3581776, 0.0531842, 0.4340021, 0.3133734, -0.0201159, -0.2862277, 0.1374218, -0.2566769, 0.1851193, -0.0003573, -0.0203691, 0.3001713, 0.1291714};

#endif

#endif
